digraph Tree {
node [shape=box, style="filled, rounded", color="black", fontname=helvetica] ;
edge [fontname=helvetica] ;
0 [label="Site EUI (kBtu/ft²) <= 15.95\nfriedman_mse = 1.0\nsamples = 6622\nvalue = 0.001", fillcolor="#e581399b"] ;
1 [label="Property Id <= 5870043.0\nfriedman_mse = 0.962\nsamples = 189\nvalue = -0.196", fillcolor="#e5813998"] ;
0 -> 1 [labeldistance=2.5, labelangle=45, headlabel="True"] ;
2 [label="DOF Gross Floor Area <= 57365.0\nfriedman_mse = 0.981\nsamples = 176\nvalue = -0.136", fillcolor="#e5813999"] ;
1 -> 2 ;
3 [label="DOF Gross Floor Area <= 54550.0\nfriedman_mse = 0.938\nsamples = 32\nvalue = 0.25", fillcolor="#e581399e"] ;
2 -> 3 ;
4 [label="Order <= 7833.0\nfriedman_mse = 0.998\nsamples = 21\nvalue = -0.048", fillcolor="#e581399a"] ;
3 -> 4 ;
5 [label="friedman_mse = 0.64\nsamples = 10\nvalue = 0.009", fillcolor="#e581399b"] ;
4 -> 5 ;
6 [label="friedman_mse = 0.595\nsamples = 11\nvalue = -0.015", fillcolor="#e581399b"] ;
4 -> 6 ;
7 [label="friedman_mse = 0.331\nsamples = 11\nvalue = 0.15", fillcolor="#e581399d"] ;
3 -> 7 ;
8 [label="DOF Gross Floor Area <= 92499.5\nfriedman_mse = 0.951\nsamples = 144\nvalue = -0.222", fillcolor="#e5813998"] ;
2 -> 8 ;
9 [label="log_Direct GHG Emissions (Metric Tons CO2e) <= 2.374\nfriedman_mse = 0.766\nsamples = 62\nvalue = -0.484", fillcolor="#e5813995"] ;
8 -> 9 ;
10 [label="friedman_mse = 1.0\nsamples = 20\nvalue = -0.0", fillcolor="#e581399b"] ;
9 -> 10 ;
11 [label="friedman_mse = 0.49\nsamples = 42\nvalue = -0.008", fillcolor="#e581399b"] ;
9 -> 11 ;
12 [label="Property Id <= 2785973.0\nfriedman_mse = 0.999\nsamples = 82\nvalue = -0.024", fillcolor="#e581399b"] ;
8 -> 12 ;
13 [label="friedman_mse = 0.395\nsamples = 9\nvalue = 0.001", fillcolor="#e581399b"] ;
12 -> 13 ;
14 [label="friedman_mse = 0.985\nsamples = 73\nvalue = -0.002", fillcolor="#e581399b"] ;
12 -> 14 ;
15 [label="friedman_mse = 0.0\nsamples = 13\nvalue = -0.034", fillcolor="#e581399b"] ;
1 -> 15 ;
16 [label="Year Built <= 2009.5\nfriedman_mse = 1.0\nsamples = 6433\nvalue = 0.007", fillcolor="#e581399b"] ;
0 -> 16 [labeldistance=2.5, labelangle=-45, headlabel="False"] ;
17 [label="log_Water Intensity (All Water Sources) (gal/ft²) <= -1.416\nfriedman_mse = 1.0\nsamples = 6261\nvalue = 0.003", fillcolor="#e581399b"] ;
16 -> 17 ;
18 [label="friedman_mse = 0.64\nsamples = 10\nvalue = 0.171", fillcolor="#e581399d"] ;
17 -> 18 ;
19 [label="log_Water Intensity (All Water Sources) (gal/ft²) <= 1.235\nfriedman_mse = 1.0\nsamples = 6251\nvalue = 0.002", fillcolor="#e581399b"] ;
17 -> 19 ;
20 [label="Order <= 13177.0\nfriedman_mse = 0.956\nsamples = 76\nvalue = -0.211", fillcolor="#e5813998"] ;
19 -> 20 ;
21 [label="friedman_mse = 0.882\nsamples = 67\nvalue = -4.851", fillcolor="#e581395b"] ;
20 -> 21 ;
22 [label="friedman_mse = 0.395\nsamples = 9\nvalue = 2.498", fillcolor="#e58139bc"] ;
20 -> 22 ;
23 [label="Order <= 638.0\nfriedman_mse = 1.0\nsamples = 6175\nvalue = 0.005", fillcolor="#e581399b"] ;
19 -> 23 ;
24 [label="friedman_mse = 0.978\nsamples = 197\nvalue = 0.256", fillcolor="#e581399e"] ;
23 -> 24 ;
25 [label="friedman_mse = 1.0\nsamples = 5978\nvalue = -0.001", fillcolor="#e581399b"] ;
23 -> 25 ;
26 [label="Site EUI (kBtu/ft²) <= 125.75\nfriedman_mse = 0.977\nsamples = 172\nvalue = 0.151", fillcolor="#e581399d"] ;
16 -> 26 ;
27 [label="Site EUI (kBtu/ft²) <= 98.2\nfriedman_mse = 0.987\nsamples = 165\nvalue = 0.115", fillcolor="#e581399c"] ;
26 -> 27 ;
28 [label="Site EUI (kBtu/ft²) <= 89.95\nfriedman_mse = 0.971\nsamples = 147\nvalue = 0.17", fillcolor="#e581399d"] ;
27 -> 28 ;
29 [label="friedman_mse = 0.987\nsamples = 138\nvalue = 0.317", fillcolor="#e581399f"] ;
28 -> 29 ;
30 [label="friedman_mse = 0.0\nsamples = 9\nvalue = 7.605", fillcolor="#e58139ff"] ;
28 -> 30 ;
31 [label="Year Built <= 2012.5\nfriedman_mse = 0.889\nsamples = 18\nvalue = -0.333", fillcolor="#e5813997"] ;
27 -> 31 ;
32 [label="friedman_mse = 0.595\nsamples = 11\nvalue = -11.779", fillcolor="#e5813900"] ;
31 -> 32 ;
33 [label="friedman_mse = 0.98\nsamples = 7\nvalue = 0.487", fillcolor="#e58139a1"] ;
31 -> 33 ;
34 [label="friedman_mse = 0.0\nsamples = 7\nvalue = 1.911", fillcolor="#e58139b4"] ;
26 -> 34 ;
}