digraph Tree {
node [shape=box, style="filled, rounded", color="black", fontname=helvetica] ;
edge [fontname=helvetica] ;
0 [label="Site EUI (kBtu/ft²) <= 15.95\nfriedman_mse = 1.0\nsamples = 6622\nvalue = 0.001", fillcolor="#e581399b"] ;
1 [label="Property Id <= 5870043.0\nfriedman_mse = 0.962\nsamples = 189\nvalue = -0.196", fillcolor="#e5813998"] ;
0 -> 1 [labeldistance=2.5, labelangle=45, headlabel="True"] ;
2 [label="DOF Gross Floor Area <= 57365.0\nfriedman_mse = 0.981\nsamples = 176\nvalue = -0.136", fillcolor="#e5813999"] ;
1 -> 2 ;
3 [label="DOF Gross Floor Area <= 54550.0\nfriedman_mse = 0.938\nsamples = 32\nvalue = 0.25", fillcolor="#e581399e"] ;
2 -> 3 ;
4 [label="(...)", fillcolor="#C0C0C0"] ;
3 -> 4 ;
7 [label="(...)", fillcolor="#C0C0C0"] ;
3 -> 7 ;
8 [label="DOF Gross Floor Area <= 92499.5\nfriedman_mse = 0.951\nsamples = 144\nvalue = -0.222", fillcolor="#e5813998"] ;
2 -> 8 ;
9 [label="(...)", fillcolor="#C0C0C0"] ;
8 -> 9 ;
12 [label="(...)", fillcolor="#C0C0C0"] ;
8 -> 12 ;
15 [label="friedman_mse = 0.0\nsamples = 13\nvalue = -0.034", fillcolor="#e581399b"] ;
1 -> 15 ;
16 [label="Year Built <= 2009.5\nfriedman_mse = 1.0\nsamples = 6433\nvalue = 0.007", fillcolor="#e581399b"] ;
0 -> 16 [labeldistance=2.5, labelangle=-45, headlabel="False"] ;
17 [label="log_Water Intensity (All Water Sources) (gal/ft²) <= -1.416\nfriedman_mse = 1.0\nsamples = 6261\nvalue = 0.003", fillcolor="#e581399b"] ;
16 -> 17 ;
18 [label="friedman_mse = 0.64\nsamples = 10\nvalue = 0.171", fillcolor="#e581399d"] ;
17 -> 18 ;
19 [label="log_Water Intensity (All Water Sources) (gal/ft²) <= 1.235\nfriedman_mse = 1.0\nsamples = 6251\nvalue = 0.002", fillcolor="#e581399b"] ;
17 -> 19 ;
20 [label="(...)", fillcolor="#C0C0C0"] ;
19 -> 20 ;
23 [label="(...)", fillcolor="#C0C0C0"] ;
19 -> 23 ;
26 [label="Site EUI (kBtu/ft²) <= 125.75\nfriedman_mse = 0.977\nsamples = 172\nvalue = 0.151", fillcolor="#e581399d"] ;
16 -> 26 ;
27 [label="Site EUI (kBtu/ft²) <= 98.2\nfriedman_mse = 0.987\nsamples = 165\nvalue = 0.115", fillcolor="#e581399c"] ;
26 -> 27 ;
28 [label="(...)", fillcolor="#C0C0C0"] ;
27 -> 28 ;
31 [label="(...)", fillcolor="#C0C0C0"] ;
27 -> 31 ;
34 [label="friedman_mse = 0.0\nsamples = 7\nvalue = 1.911", fillcolor="#e58139b4"] ;
26 -> 34 ;
}